digraph Tree {
node [shape=box, style="filled, rounded", color="black", fontname="helvetica"] ;
edge [fontname="helvetica"] ;
0 [label="Na_to_K <= 14839.0\ngini = 0.69\nsamples = 150\nvalue = [19, 11, 12, 38, 70]\nclass = drugC", fillcolor="#f8c6ed"] ;
1 [label="BP <= 0.5\ngini = 0.715\nsamples = 86\nvalue = [19, 11, 12, 38, 6]\nclass = drugA", fillcolor="#c8c7f8"] ;
0 -> 1 [labeldistance=2.5, labelangle=45, headlabel="True"] ;
2 [label="Age <= 50.0\ngini = 0.525\nsamples = 32\nvalue = [19, 11, 0, 0, 2]\nclass = drugY", fillcolor="#f5cfb4"] ;
1 -> 2 ;
3 [label="Na_to_K <= 3149.225\ngini = 0.172\nsamples = 21\nvalue = [19, 0, 0, 0, 2]\nclass = drugY", fillcolor="#e88e4e"] ;
2 -> 3 ;
4 [label="Sex <= 0.5\ngini = 0.444\nsamples = 3\nvalue = [1, 0, 0, 0, 2]\nclass = drugC", fillcolor="#f29ce0"] ;
3 -> 4 ;
5 [label="gini = 0.0\nsamples = 2\nvalue = [0, 0, 0, 0, 2]\nclass = drugC", fillcolor="#e539c0"] ;
4 -> 5 ;
6 [label="gini = 0.0\nsamples = 1\nvalue = [1, 0, 0, 0, 0]\nclass = drugY", fillcolor="#e58139"] ;
4 -> 6 ;
7 [label="gini = 0.0\nsamples = 18\nvalue = [18, 0, 0, 0, 0]\nclass = drugY", fillcolor="#e58139"] ;
3 -> 7 ;
8 [label="gini = 0.0\nsamples = 11\nvalue = [0, 11, 0, 0, 0]\nclass = drugX", fillcolor="#7be539"] ;
2 -> 8 ;
9 [label="BP <= 1.5\ngini = 0.45\nsamples = 54\nvalue = [0, 0, 12, 38, 4]\nclass = drugA", fillcolor="#8684ef"] ;
1 -> 9 ;
10 [label="Cholesterol <= 0.5\ngini = 0.532\nsamples = 27\nvalue = [0, 0, 12, 14, 1]\nclass = drugA", fillcolor="#e5e5fc"] ;
9 -> 10 ;
11 [label="Age <= 65.5\ngini = 0.142\nsamples = 13\nvalue = [0, 0, 12, 0, 1]\nclass = drugB", fillcolor="#49e7ca"] ;
10 -> 11 ;
12 [label="gini = 0.0\nsamples = 12\nvalue = [0, 0, 12, 0, 0]\nclass = drugB", fillcolor="#39e5c5"] ;
11 -> 12 ;
13 [label="gini = 0.0\nsamples = 1\nvalue = [0, 0, 0, 0, 1]\nclass = drugC", fillcolor="#e539c0"] ;
11 -> 13 ;
14 [label="gini = 0.0\nsamples = 14\nvalue = [0, 0, 0, 14, 0]\nclass = drugA", fillcolor="#3c39e5"] ;
10 -> 14 ;
15 [label="Na_to_K <= 3352.525\ngini = 0.198\nsamples = 27\nvalue = [0, 0, 0, 24, 3]\nclass = drugA", fillcolor="#5452e8"] ;
9 -> 15 ;
16 [label="Na_to_K <= 14.025\ngini = 0.48\nsamples = 5\nvalue = [0, 0, 0, 2, 3]\nclass = drugC", fillcolor="#f6bdea"] ;
15 -> 16 ;
17 [label="gini = 0.0\nsamples = 2\nvalue = [0, 0, 0, 2, 0]\nclass = drugA", fillcolor="#3c39e5"] ;
16 -> 17 ;
18 [label="gini = 0.0\nsamples = 3\nvalue = [0, 0, 0, 0, 3]\nclass = drugC", fillcolor="#e539c0"] ;
16 -> 18 ;
19 [label="gini = 0.0\nsamples = 22\nvalue = [0, 0, 0, 22, 0]\nclass = drugA", fillcolor="#3c39e5"] ;
15 -> 19 ;
20 [label="gini = 0.0\nsamples = 64\nvalue = [0, 0, 0, 0, 64]\nclass = drugC", fillcolor="#e539c0"] ;
0 -> 20 [labeldistance=2.5, labelangle=-45, headlabel="False"] ;
}