digraph Tree {
node [shape=box, style="filled, rounded", color="black", fontname="helvetica"] ;
edge [fontname="helvetica"] ;
0 [label="Na_to_K <= 14899.0\ngini = 0.715\nsamples = 150\nvalue = [21.0, 15.0, 11.0, 39.0, 64.0]\nclass = drugB", fillcolor="#f9d2f1"] ;
1 [label="BP <= 0.5\ngini = 0.718\nsamples = 91\nvalue = [21, 15, 11, 39, 5]\nclass = drugC", fillcolor="#cdccf8"] ;
0 -> 1 [labeldistance=2.5, labelangle=45, headlabel="True"] ;
2 [label="Age <= 50.5\ngini = 0.536\nsamples = 38\nvalue = [21.0, 15.0, 0.0, 0.0, 2.0]\nclass = drugY", fillcolor="#f8decb"] ;
1 -> 2 ;
3 [label="Na_to_K <= 3149.225\ngini = 0.159\nsamples = 23\nvalue = [21, 0, 0, 0, 2]\nclass = drugY", fillcolor="#e78d4c"] ;
2 -> 3 ;
4 [label="Sex <= 0.5\ngini = 0.5\nsamples = 4\nvalue = [2, 0, 0, 0, 2]\nclass = drugY", fillcolor="#ffffff"] ;
3 -> 4 ;
5 [label="gini = 0.0\nsamples = 2\nvalue = [0, 0, 0, 0, 2]\nclass = drugB", fillcolor="#e539c0"] ;
4 -> 5 ;
6 [label="gini = 0.0\nsamples = 2\nvalue = [2, 0, 0, 0, 0]\nclass = drugY", fillcolor="#e58139"] ;
4 -> 6 ;
7 [label="gini = 0.0\nsamples = 19\nvalue = [19, 0, 0, 0, 0]\nclass = drugY", fillcolor="#e58139"] ;
3 -> 7 ;
8 [label="gini = 0.0\nsamples = 15\nvalue = [0, 15, 0, 0, 0]\nclass = drugA", fillcolor="#7be539"] ;
2 -> 8 ;
9 [label="BP <= 1.5\ngini = 0.412\nsamples = 53\nvalue = [0, 0, 11, 39, 3]\nclass = drugC", fillcolor="#7d7bee"] ;
1 -> 9 ;
10 [label="Cholesterol <= 0.5\ngini = 0.538\nsamples = 24\nvalue = [0, 0, 11, 12, 1]\nclass = drugC", fillcolor="#f0f0fd"] ;
9 -> 10 ;
11 [label="Age <= 64.0\ngini = 0.153\nsamples = 12\nvalue = [0, 0, 11, 0, 1]\nclass = drugX", fillcolor="#4be7ca"] ;
10 -> 11 ;
12 [label="gini = 0.0\nsamples = 11\nvalue = [0, 0, 11, 0, 0]\nclass = drugX", fillcolor="#39e5c5"] ;
11 -> 12 ;
13 [label="gini = 0.0\nsamples = 1\nvalue = [0, 0, 0, 0, 1]\nclass = drugB", fillcolor="#e539c0"] ;
11 -> 13 ;
14 [label="gini = 0.0\nsamples = 12\nvalue = [0, 0, 0, 12, 0]\nclass = drugC", fillcolor="#3c39e5"] ;
10 -> 14 ;
15 [label="Na_to_K <= 3352.525\ngini = 0.128\nsamples = 29\nvalue = [0, 0, 0, 27, 2]\nclass = drugC", fillcolor="#4a48e7"] ;
9 -> 15 ;
16 [label="Na_to_K <= 14.905\ngini = 0.5\nsamples = 4\nvalue = [0, 0, 0, 2, 2]\nclass = drugC", fillcolor="#ffffff"] ;
15 -> 16 ;
17 [label="gini = 0.0\nsamples = 2\nvalue = [0, 0, 0, 2, 0]\nclass = drugC", fillcolor="#3c39e5"] ;
16 -> 17 ;
18 [label="gini = 0.0\nsamples = 2\nvalue = [0, 0, 0, 0, 2]\nclass = drugB", fillcolor="#e539c0"] ;
16 -> 18 ;
19 [label="gini = 0.0\nsamples = 25\nvalue = [0, 0, 0, 25, 0]\nclass = drugC", fillcolor="#3c39e5"] ;
15 -> 19 ;
20 [label="gini = 0.0\nsamples = 59\nvalue = [0, 0, 0, 0, 59]\nclass = drugB", fillcolor="#e539c0"] ;
0 -> 20 [labeldistance=2.5, labelangle=-45, headlabel="False"] ;
}